const float W0[9][64] = {
    {0.1968535, 0.033143114, -1.0047642, -0.24346615, -0.16882709, -0.07337056, -0.10458677, 1.9136637, -0.047251675, -0.0060577276, -0.04942618, 0.28268927, 0.039137848, 0.21589468, 0.05023384, -0.20994696, 0.5502131, 0.21545884, -0.045573805, -0.11316554, 0.5489853, 0.54292756, 0.07597959, 0.103982575, 1.5517623, -0.57711923, 0.48650753, -1.8016338, 1.6379962, 0.5282907, -0.11562322, -0.123860985, 0.015281823, -0.45608887, 1.1724974, -1.1266328, 0.8764373, -0.26519638, 1.0715454, -0.71687454, -0.40724587, 1.1509864, 0.62803894, 2.4646, -0.31621996, -0.50409305, 0.32045758, 0.4077635, 1.7157246, -0.23974368, 0.2800624, 1.1107031, -0.05236709, -0.064530626, 0.88743824, -0.89981353, 0.15568955, -0.09403367, 0.2652336, 0.37299216, -0.061192974, 0.70838106, -1.1348512, -0.20931827},
    {-0.015853234, -0.030603133, -0.051665947, -0.25522688, -0.20726988, 0.030127585, -0.04418969, -0.20321429, -0.0018093851, -0.039973408, -0.27806172, 0.0077643986, -0.08543823, -0.273714, 0.0027575858, -0.019276448, -0.27745548, 0.16491129, -0.009508395, -0.022423297, 0.37436387, -0.028664326, -0.18615307, 0.06788311, 0.014119777, 0.025042474, -0.25378978, -0.021669712, -0.4812178, -0.26686266, -0.26129133, -0.107893646, 0.0151110785, -0.16502166, -0.42732713, -0.3075532, 0.02929211, 0.06541757, -0.15698501, 0.052871816, 0.2767131, -0.43424508, -0.031676844, -0.40732378, 0.24218418, 0.17750978, 0.2196242, 0.19294322, -0.3165549, -0.25245902, 0.08946505, 0.15903346, -0.15827599, -0.091479, 0.41606104, 0.26476017, -0.026372619, -0.03990896, 0.11277951, 0.034192458, -0.09597202, 0.24637413, -0.033746906, 0.43670613},
    {-1.5586094, -0.5353198, 1.4072529, -0.02658236, 0.15094477, 0.9809116, 0.02811636, -2.2982948, -0.11027593, 1.358003, 0.23843467, -0.4384638, -0.20745222, -0.47111288, 0.055590004, -1.1115618, 0.6604729, -2.4717317, -0.029560633, -0.17429322, 1.1182076, -2.458179, -0.1126086, 1.0243845, 1.0204074, 1.363555, -0.4302214, -2.5587258, 0.9120932, 4.5894923, -0.04580772, 0.014360517, 0.06745684, -2.8935874, -1.6631302, -0.6129997, 0.8037155, -0.6438586, -0.85428536, 0.421097, 2.0306659, 0.4524556, -2.695655, -0.6703818, -2.637698, -0.3400105, -0.7493965, -0.97009057, 1.8067373, -0.15459186, 0.3698173, -0.99091077, -0.28256658, 0.13214326, -1.0508401, 0.78013843, -0.25847283, -0.07734883, 1.0321193, -0.16165191, 0.16623023, -0.42389494, -2.4577236, -1.6593449},
    {-0.067362234, 0.015197837, 0.00020063549, -0.26583382, -0.016675264, -5.217449, -0.73018485, -0.015228131, -2.2521558, 0.010529973, -0.1478374, -0.0043611797, 0.007996818, -0.34959215, -0.09537395, -0.024248777, -0.03181663, -0.23832627, -4.335943, -0.061229065, -0.051317994, 0.13731068, -0.14074071, -1.5012109, 0.0019309414, -0.25011376, 0.006829439, 0.041937884, -0.038812168, -0.013050637, -0.07403107, -0.11676355, -11.197851, 0.01327882, -0.2784025, -0.00305765, -0.03356074, -1.4311961, -0.22855704, -0.05122189, -0.008799339, -0.019440062, -0.02956499, 0.027915254, -0.0143559575, 0.03147195, 0.0019036443, 0.0028142172, -0.018414574, -0.16829264, -0.046205383, 0.050545, -0.21610883, -0.2181451, 0.06416797, -0.11808696, -0.32301733, -0.13031955, -0.62522113, -0.35568714, -0.1550801, -0.013529771, 0.011139471, 0.002489496},
    {0.030952606, -0.02461977, 0.0014234968, 0.030155271, -0.16479927, -5.695982, 0.19773978, -0.009380121, 0.94594973, -0.44212538, 0.007617813, 0.042423643, 0.058007337, 0.16263059, -1.3100728, 0.192216, -0.050559122, 0.34435424, -0.90745705, -0.05887206, -0.10673517, -0.21260564, -0.18022138, -1.3511091, -0.006548752, -1.0972509, 0.07309898, 0.021869875, -0.026002947, 0.028140843, -0.087504715, 0.0065467954, -6.8293576, 0.0071095824, 0.21338677, 0.010238411, 0.005428933, 0.3260612, -7.4044404, 0.047537245, -0.015732301, -0.028953662, -0.0017443313, 0.054594073, -0.019452672, 0.02873415, 0.019734895, -0.031821292, -0.011266751, -0.06497574, -0.0050196536, -0.11728423, -0.254624, -0.108887285, -0.12063637, -0.6505766, -0.18295398, -0.24689984, 0.47983092, 0.17030126, -0.082944095, 0.0020606501, 0.0062030246, -0.3614086},
    {0.016882027, -0.8589299, 0.19016151, -0.12513939, -0.17825297, -0.033628296, -0.018406529, -0.5618278, -0.028421424, -0.6194735, -0.118805364, 0.1280635, -0.16750883, -0.06205286, -0.023259405, -0.10603253, -0.7214712, -0.51787937, -0.016808791, 0.053605705, -0.09387236, 0.23467612, 0.19091102, -0.045454778, -0.114881665, 0.06821992, 1.4098654, 1.0192615, -0.09547721, -0.6844426, -0.1635042, -0.14641397, -0.027655106, -1.8159153, -0.25158626, 0.5953391, -0.86511654, 0.030553823, -0.26656654, 0.519544, -0.16070247, 0.37037396, 0.26128134, -0.1536268, 0.30410433, 0.082267754, 0.27822414, 0.12399387, -0.40507093, -0.1694093, -0.35772306, 0.005971476, -0.1335209, -0.23768026, -0.5166686, 0.2658128, -0.008308962, -0.08391252, 0.36965248, -0.025372203, 0.16690063, 0.18401824, 1.9164506, 0.20160778},
    {0.35250327, -1.6269095, 0.36587334, 0.19960594, -0.057322234, 0.92818034, -0.14104839, -3.0137355, -0.675464, 0.72517717, 0.24101263, 1.5094119, -2.253395, 0.25029808, -1.7080752, 0.80081886, 2.160388, -0.14655435, -0.21302076, -0.26781282, 0.56312925, 0.6317242, 0.19741926, 0.94010764, -2.8825173, -0.8192556, 0.1714047, -0.40915406, -1.6656218, 1.1591103, 0.08783129, -0.18935627, -0.65712035, 3.8516366, 2.2145054, 3.2708664, 2.3137653, -0.93097955, 0.10120059, 0.42663324, -0.24146037, 3.593149, 1.8799663, -1.1407253, -1.7773535, -3.4247863, -1.4212624, -0.28163514, 3.3744795, 0.13559088, -0.18090901, 2.0492437, 0.17570066, -0.13097696, 1.9151056, 0.32198566, -0.075709574, -0.03008604, -0.8263612, -1.4921204, -0.23252442, -0.20155577, -1.935088, -0.21896313},
    {-0.43283844, 1.1406968, -0.05226906, 0.1108585, -0.0049274564, 1.1178622, -0.0702094, -0.14730811, -0.017749505, -0.03349541, 0.199598, -0.5749379, 3.7479959, 2.2851152, 0.05748629, -0.49868816, -0.062129535, -1.8472836, 0.8511543, -0.12287986, 1.0128297, -0.005257567, -0.28300306, 1.1663616, -0.51826847, -0.007106943, 0.12526596, 0.20096321, 0.79858494, -0.18509, 0.07051885, 0.12115553, -0.061174203, -0.027054887, -0.32122186, 0.11946003, 0.5496447, 0.00042344985, -2.2386618, -0.8531125, -1.0148977, -1.4041524, -0.21851508, -0.43338892, 0.5190952, -1.2591004, -0.03063612, -1.1691966, -0.5893296, -0.24389938, -0.6057709, 0.6302914, -0.16613543, -0.15848453, 0.6186965, -0.24753605, -0.34035137, -0.2706591, -0.48572457, -1.2851756, -0.040537402, -0.5062298, 0.10960356, -0.017286994},
    {-0.40393633, 0.83956194, 0.6270372, -0.21076544, -0.1701931, -0.7052236, -0.2732306, -1.4395809, 0.045105506, 1.3674477, -0.24601749, -1.4843006, -0.18086526, -0.82110864, -0.022535581, 0.8826146, 2.8587809, 0.008028614, -0.14045654, 0.14249709, -0.7537546, 0.46144706, -0.2438004, 0.74471706, 0.6164961, 0.56540036, -1.7912847, -0.79112697, 2.0030856, -0.9415398, 0.013871044, -0.005736679, -0.22852232, -0.44337526, -0.67547005, 0.23473261, -0.8924905, 0.34097603, 1.6523114, 2.1366534, -0.90459406, -0.68499166, -1.0140201, 0.5810279, 0.114176214, 0.24323553, -3.1950388, 0.06315383, -0.024981111, 0.0012466013, 2.071289, -1.3920716, 0.14756876, -0.26614693, -1.2701613, -0.25021333, 0.043194883, 0.2559823, -0.5749086, 0.08423531, 0.110527605, -5.7482424, -0.45716184, -1.4771982},
};

const float B1[] = {12.023456, 12.919745, 13.290984, 0.0, 0.0, 3.7312326, 9.333243, 6.5356793, 9.154578, 8.273345, -0.025693273, 8.542465, 2.24079, 1.9916295, 9.347681, 10.310794, 6.4411006, 10.124503, -12.100575, 0.0, -8.301389, -7.9161596, 0.0, 4.763936, 10.39487, 8.356885, 8.443917, 9.893501, 8.823409, 5.4118414, 0.0, 0.0, 9.071518, 8.4823, 0.7053071, 1.9484186, 4.063359, 9.168837, 2.1426423, 8.175609, 11.945338, 2.0164773, 11.352208, -7.61353, 9.908194, 16.710705, 10.749297, 11.11358, 5.655944, 0.0, 9.29851, 6.674633, 0.0, 0.0, 6.307471, 8.348388, 9.402183, 0.0, 7.016551, 6.383337, 0.0, 4.652127, 5.680893, 3.9040656};

const float W2[64][32] = {
    {0.626613, 0.052015208, 0.41905037, -0.97820675, 0.4994451, 0.109401174, -0.14606407, 0.24623607, 0.21530414, -0.075187236, -0.04608804, 0.21287484, -0.06723794, 0.12675808, -0.24077336, -0.16507329, -0.4533687, -0.15298703, 0.42909223, 0.22885069, -0.26971722, -0.07317094, 0.075148314, 0.39921182, 0.26501757, 0.22267218, -0.26375034, 0.030533982, 0.12280211, 0.12978882, -0.31428775, 0.11580548},
    {0.9406062, 0.1345509, 1.1171132, -0.17361395, -0.59317774, 0.017485747, -0.19770712, 0.0068155816, 0.0001026392, -0.23797125, 0.08357931, 0.048992977, -0.111231096, -0.05142925, 0.23933488, -0.16083993, 0.3173167, -0.13962701, -0.0728932, -0.2874839, 0.10469337, 0.23041551, 0.11113011, -0.61898607, -0.0036382803, 0.17257495, -0.07894396, -0.19078912, 0.09452807, -0.18573663, -0.27700144, 0.06965143},
    {1.1337447, -0.21687016, 2.4915118, -0.53951913, 0.124199346, 0.96868056, -0.17962593, 0.015748534, -0.10305756, -0.5644622, -0.49234006, -0.34535423, 0.08018315, 0.16573825, -0.07877934, -0.16198401, -0.43178034, 0.08831801, 1.7451091, -0.24706987, 0.18412034, -0.6618655, 0.4753639, 1.7506143, 0.27928665, -0.3774154, -0.12592375, -0.13387701, 0.7013767, -0.07773232, -0.0035508228, -0.18052264},
    {-0.039340496, -0.07071751, 0.081000745, -0.22006899, 0.18168974, 0.24972749, -0.0013737082, 0.09632558, 0.19789666, 0.14014524, -0.08813888, -0.046421945, 0.15036345, -0.17238313, 0.041439414, 0.02651298, 0.09484929, -0.2204358, 0.023923397, 0.21915269, 0.18694574, -0.040925503, -0.21279329, 0.10905087, -0.04127276, 0.10034937, 0.09218454, 0.23545021, -0.14667034, 0.11298722, 0.06084335, 0.09048945},
    {0.12216753, 0.0064686537, -0.16015661, -0.22244596, 0.024235964, 0.04998529, -0.008789539, -0.16286576, 0.021243691, -0.01418072, 0.22444856, -0.11014265, 0.00269562, -0.07246739, -0.21005726, -0.13644755, -0.010726035, 0.086169004, 0.066679776, -0.16592312, 0.11781448, -0.026447952, -0.12117052, 0.12692475, 0.05733043, -0.06713557, 0.01845771, -0.011903524, 0.066919565, 0.13512307, 0.08799052, 0.1374675},
    {0.18859999, -0.07608956, -0.36322135, -0.3775677, -0.0115679335, 0.032291483, 0.13488312, -0.3958178, -0.1046353, -0.25452155, -0.40039012, -0.3225415, -0.10228582, 0.05428972, -0.157063, -0.21697044, -0.28018773, -0.23768863, -0.16975607, -0.23794976, -0.08677054, -0.12506431, -0.13599348, -0.011380912, 0.03585223, -0.31309018, -0.12822504, -0.067686744, -0.1209767, 0.003072946, -0.194004, -0.5138693},
    {3.1106195, -0.22957242, 2.6067536, 0.43940696, 2.113299, 1.9634212, -0.00045030832, 2.0228417, 0.17010748, 2.1101818, 1.6230044, 1.9142771, -0.055845756, -0.103067935, 0.34636262, -0.1740703, 1.0607224, 2.006328, 2.4364328, 2.2070572, 2.0327132, 1.8086373, 2.7759447, 1.4755102, 3.4675899, 1.6601033, -0.074964516, 2.2086906, 2.071205, 2.2234926, -0.22083166, 2.108762},
    {-0.13164315, 0.22097379, -0.5781759, -0.844338, 0.085415795, 0.14795037, 0.0939917, -0.42451426, -0.17215693, -0.32446828, -0.17594093, -0.35626087, -0.22169526, -0.06726547, -3.7080948, -0.061323967, 0.6916701, -0.76586515, 1.7703382, -0.47657517, -0.4140101, -0.324404, -0.82548106, -0.6372168, -2.1058357, -1.4234562, -0.03183869, -0.78750867, -0.054214656, -0.50219744, -0.21757038, -0.12751146},
    {0.6240566, -0.14837535, 1.401404, 0.3318491, 1.4047647, 1.2402936, -0.121305645, 1.046996, 0.1955285, 1.143354, 1.2065479, 1.2075903, -0.27187794, 0.16229068, 0.3790776, 0.056051314, 0.7201925, 0.755569, 0.9839185, 1.1493188, 1.1137017, 1.1578106, 0.990993, 0.4321441, 1.4307534, 1.236719, -0.05584374, 1.1997032, 1.1731032, 1.0867094, 0.05234122, 1.0543064},
    {1.3117687, -0.22520763, 0.0012443984, 0.21818057, 0.54018027, 0.5685298, -0.1979357, 0.3760055, -0.019735515, 0.24691883, 0.41224265, 0.20695058, -0.14001419, 0.11010143, 0.3981157, -0.24946761, 0.1926673, 0.19616626, 0.48677933, 0.46298367, 0.7242428, 0.33040333, 0.58863175, -0.12299024, -0.25520137, 0.5177301, -0.1358028, 0.19427846, 0.359152, 0.25466216, 0.10400355, 0.15803327},
    {-0.03654182, -0.22637123, -0.039095987, -0.2067657, -0.12702611, 0.005724163, 0.055013835, 0.26613784, 0.24016535, 0.14086233, -0.065130785, -0.06279143, 0.0042072535, -0.24407417, -0.044706993, -0.20775574, -0.16892241, -0.20333898, 0.054108806, -0.068542324, 0.004875933, -0.12637398, -0.06707011, -0.08562431, 0.18420208, 0.0387957, 0.23292911, -0.03700634, -0.117698364, 0.04514654, -0.124488086, -0.18879543},
    {0.1595162, 0.010907094, -0.19394673, -0.1521713, 0.040156603, 0.0924012, -0.1614888, 0.27295086, -0.18186373, 0.21456729, 0.20685948, -0.05111174, -0.045271356, 0.07680114, -0.25935814, 0.08518303, -0.38126868, -0.028416226, 0.078916214, 0.02894767, 0.27041605, 0.30898172, 0.43698987, 0.022681305, -0.23784204, -0.14104596, 0.07765197, 0.017522229, 0.32959902, -0.07537624, 0.16969895, -0.47099566},
    {-2.9838583, -0.030864753, 1.082141, -0.04928642, -0.42595804, -0.4860986, -0.17767562, -0.00031559225, 0.070883274, 0.10652056, -0.31510302, -0.2931289, -0.11286152, -0.07802578, -0.031288065, -0.12969704, -0.07583547, -0.085292526, 0.120411046, 0.004812083, 0.12817869, 0.08651577, 0.009518412, 0.32080227, 0.4281788, 0.0013834488, -0.30792516, -0.12507048, 0.0011304156, -0.29635108, -0.051172763, 0.06764723},
    {0.20475706, -0.10249007, 1.0997738, 0.11522803, 0.57332176, 0.58703583, -0.17058152, 0.19089697, -0.21441984, 0.624636, 0.500279, 0.29503155, -0.20400494, -0.06881101, 0.30035242, -0.21407557, 0.5723772, 0.48939082, 0.6232389, 0.25565967, 0.5755459, 0.32258633, 0.25786272, 0.8274032, 0.81043905, 0.3689916, -0.12888867, 0.40094984, 0.8280829, 0.1353258, 0.033315934, 0.34438664},
    {6.032038, -0.24520665, -3.053483, -5.682133, -2.1439111, -2.9055057, -0.15793705, -2.9589374, -0.08809322, -2.804871, -3.17843, -3.1982455, 0.16119403, 0.18047643, -6.4977574, 0.04082066, -5.2909193, -2.8076627, -2.4529886, -2.0927804, -3.2300758, -3.0475032, -1.6459831, -12.593968, -3.0186715, -3.517575, 0.2386616, -2.229251, -2.1928322, -2.6940243, 0.1134903, -3.4729056},
    {0.25601393, -0.082392156, -0.3834433, 0.21690735, -0.32857528, 0.13247861, -0.25438687, 0.20569353, -0.1690157, 0.12270638, 0.30705354, 0.066529825, 0.17306715, -0.35272345, -0.11528406, -0.121047564, 0.009763805, 0.44387025, -0.034187716, 0.4703981, 0.17202893, -0.12386452, 0.6094245, 0.048413396, 0.25371775, 0.003961491, -0.24848063, 0.3842304, -0.0686133, 0.37066352, -0.017488787, -0.03446383},
    {-0.3131566, 0.05689774, -0.28980908, -1.233342, 0.5294786, -0.39318928, -0.09956492, -0.29554448, -0.20321006, -0.3962585, 0.044394806, -0.3239157, -0.06999465, 0.06265675, -0.34705582, -0.23978093, -0.3821657, -0.4501643, 0.6894167, -0.29752916, -0.3426018, -0.15560834, 0.01265603, 0.14789285, 0.1369042, 0.062106825, -0.12684073, -0.03934099, -0.20051257, 0.011106195, 0.05404585, 0.14131913},
    {-0.019281512, -0.110255495, 1.228557, -0.11558, 0.45542496, -0.5739385, -0.2473822, -0.46752724, -0.07250959, -0.19696903, -0.30773386, -0.104149915, -0.14463586, -0.27949524, 0.27294043, 0.14154257, 0.39042443, -0.39349687, -0.6374032, -0.31334543, -0.6339059, -0.24893534, -0.45789978, 0.29380578, -0.10644078, -0.118261695, -0.1697081, -0.36246547, -0.74396014, -0.42882994, -0.055788778, -0.06395264},
    {-7.8831115, -0.24861002, -5.4714484, -4.5259223, -4.7923436, -6.6567726, 0.11925006, -7.3729997, -0.058642805, -7.7432966, -7.4957232, -7.729235, 0.0985775, -0.19529213, -5.4310737, 0.034458876, -7.284882, -6.498513, -6.6816187, -6.624495, -5.470761, -7.1931453, -6.660315, -4.0015516, -5.1835275, -7.395422, -0.056682974, -6.399884, -6.376373, -7.217575, -0.14854725, -7.7501006},
    {0.049897015, 0.030260682, 0.012213767, -0.19132942, 0.0913313, 0.19372284, -0.1856128, -0.17315704, 0.1833983, 0.16175199, -0.21618629, -0.189439, 0.16898835, 0.14900637, -0.14717633, -0.06013769, -0.18777198, -0.12730396, 0.13133156, -0.035325766, 0.15468407, -0.1533404, -0.22105378, 0.05203557, 0.1825872, -0.18301976, -0.074242055, -0.08359027, -0.1006788, 0.10253322, 0.1495933, -0.040806472},
    {-1.10211, 0.079081416, -0.39987302, 0.18697622, 0.12622324, -0.21710101, -0.20661815, -0.16404973, 0.15826154, -0.45960972, 0.09498282, -0.25859082, -0.25682527, -0.05428818, -0.069021344, -0.19112995, 0.10295188, -0.26694936, -0.060202498, -0.19617492, 0.06745777, -0.26570365, -0.15518156, -0.07700785, -0.28707042, -0.041559726, 0.12424285, 0.07046398, -0.17504175, -0.037781324, -0.25222978, -0.17126097},
    {-0.3535135, -0.07288873, 0.105784826, 0.20157897, -2.184232, 0.26782236, 0.079598345, -0.10905032, -0.06774032, -0.12920631, 0.1325899, -0.1778689, -0.12255633, -0.06798037, 0.023674736, -0.04331106, 0.2817293, 0.021516802, -1.2754482, -0.08918858, -0.0959568, 0.016430859, -0.17754379, 0.06307291, -0.2711129, 0.24550502, 0.114618696, 0.1846192, 0.0783413, 0.2419474, 0.062082868, -0.34575787},
    {0.09480089, 0.24887687, 0.09881377, 0.12951678, 0.22650594, -0.16243935, 0.046161413, -0.075731575, 0.06323737, 0.1309759, -0.18340558, -0.07405466, -0.08688718, -0.19963133, -0.09724885, -0.19183004, -0.19467801, 0.17772478, 0.092268586, -0.13078946, -0.0057067275, 0.1038174, -0.17638278, -0.02570784, 0.11995953, -0.19300169, 0.12064183, 0.24444169, -0.24429941, -0.2134034, 0.049334288, 0.16064924},
    {0.43997183, 0.094226725, -0.5110788, 0.050077565, -0.14504616, -0.12473146, 0.04362409, 0.023839489, 0.06727594, 0.054455373, -0.15588658, -0.15379438, -0.12796295, -0.20585896, 0.09710347, 0.18871832, -0.025396457, 0.21996468, 0.18833455, 0.07168702, -0.005900668, 0.16154529, -0.044050485, -0.51772434, -0.61990976, -0.10665845, -0.23676614, 0.15767242, 0.17019603, -0.06988133, 0.060978353, -0.2958551},
    {1.6299202, -0.021625197, 0.6215217, -0.029023154, 1.0063657, 0.54799604, -0.13498044, 0.19990963, -0.118563116, 0.48259643, 0.21862341, 0.60776544, -0.12705395, 0.14797725, 0.07728425, -0.044248655, 0.35387143, 0.5107896, 1.0027113, 0.3283073, 0.061449714, 0.07149397, 0.10415439, -0.44088665, 0.13814884, 0.31078166, -0.16708668, 0.43041658, 0.6547895, 0.55821997, 0.058203083, 0.9028419},
    {-0.6071531, -0.1319371, 0.9881093, 0.86889166, 0.93823916, 0.5283324, 0.1813445, 0.5416285, 0.090419054, 0.63511544, 0.9671904, 1.1281782, -0.27442336, 0.09443602, 0.7332867, 0.11425339, 1.1029435, 0.26596603, 0.5627069, 0.24461637, 0.112882085, 0.52246934, 0.16931698, 0.94200546, 3.1480587, 1.2496618, -0.21104927, -0.08187793, 0.13965462, 0.42906854, -0.07568266, 1.2701879},
    {-0.39345443, -0.23637486, 0.027508358, -0.09939748, -0.2716033, 0.10061808, 0.12921134, 0.11563768, -0.12430358, 0.18451005, 0.11865266, 0.26963225, -0.23033978, -0.21460123, 0.03464499, -0.24232176, -0.30423924, 0.22802636, 0.13970616, 0.31940103, 0.41355214, 0.20658396, 0.21388641, -0.13353063, 0.027443502, 0.21761024, -0.2541617, 0.42035922, 0.3648717, 0.11698294, 0.070848905, 0.2264916},
    {0.61936074, 0.03678899, 0.98566276, -0.18096104, 1.4710324, 0.37413338, -0.09760746, -0.7143737, -0.24930328, -0.8315679, -0.51449513, -0.5993936, 0.12100164, -0.090395555, 0.49148244, -0.09302765, -0.22078966, -0.70980346, 1.1839068, -0.25223595, -0.26807785, -0.6948157, -0.53354126, 0.48307696, -0.06497804, -0.61099017, 0.15257962, -0.3181441, 0.24217507, -0.5033395, 0.042913694, -0.26662818},
    {0.28491703, -0.1068271, 1.0566608, -0.46937233, 0.48753896, -0.09654789, -0.051701903, -0.5475568, 0.18132615, -0.2887819, -0.20692937, -0.32140058, 0.088240385, -0.2822949, 0.07742783, -0.2972438, 0.1600926, -0.27053663, 0.7689584, -0.4373618, -0.50900155, -0.2095787, -0.58540475, -0.09309765, -0.03959108, -0.21370283, -0.17500758, -0.53485745, -0.08276936, -0.2715948, 0.043268144, 0.10434165},
    {-0.68044484, -0.011589783, 0.07866939, 0.94669604, -0.0717304, -0.51141816, -0.2332197, -0.09867724, -0.138048, -0.077322215, 0.062859476, -0.15547663, -0.21018918, -0.04807154, 0.41890883, 0.044450797, -0.06157908, 0.002329416, 0.35526434, -0.26115066, 0.26641333, 0.07261435, -0.25503376, -0.14890891, 0.20390256, -0.054282673, -0.046870362, -0.11191087, -0.26291665, 0.09700324, 0.0053180335, -0.015765758},
    {-0.123544395, 0.1496371, 0.045390785, 0.12739009, -0.21556205, -0.17979681, 0.07868385, 0.0033752322, -0.0002822876, 0.06856775, -0.18732077, -0.0036298037, -0.124195814, -0.2306813, -0.07815915, -0.06514543, 0.24731576, 0.0129054785, 0.16437733, -0.13411671, 0.23097223, -0.058089137, 0.057906628, 0.051740408, 0.18735623, -0.088080466, -0.16323972, 0.24800187, 0.020583272, -0.11728835, -0.17078328, -0.11627841},
    {0.2144351, -0.1654576, 0.2287305, 0.09549427, -0.23467124, 0.14556253, 0.17251432, -0.054080963, -0.043673933, 0.23362035, -0.08434397, -0.020295382, 0.13966644, -0.22946227, -0.05335337, 0.18890995, -0.07446778, -0.15960193, 0.11570072, -0.21756124, 0.1275149, 0.23870528, -0.13452774, 0.17610765, -0.08861905, -0.070225656, -0.2430641, -0.22649342, -0.18201178, 0.14629549, -0.1382975, 0.06349528},
    {6.227576, 0.22766417, 2.8679795, 3.729819, 2.4707325, 2.4559913, 0.22042595, 2.8210828, -0.023105085, 2.7507286, 3.2132106, 2.7499604, -0.059934862, -0.02622461, 2.841546, 0.23290622, 3.8875184, 2.6285243, 2.2791395, 2.2559786, 2.7792954, 2.7259681, 2.1612694, 3.9137478, 2.8389423, 2.9473002, -0.13911831, 2.5735998, 2.6122806, 2.6812136, -0.13156706, 3.3009033},
    {-0.5283512, -0.20934261, 1.5937998, -0.32593715, -1.4553524, -2.1727593, -0.25272426, -0.03861431, -0.07645303, 0.056618806, 0.061543424, 0.29906303, -0.039491437, -0.18582748, -0.19954567, -0.27225143, 0.31622195, -0.30335435, 1.2456272, -0.30560485, -0.3988711, -0.011555164, -0.27719417, -0.0077740713, -2.9002516, 0.39223543, -0.13532439, -0.03158296, -2.0072865, -0.20807436, -0.2042147, 0.72000706},
    {0.14243516, -0.20133364, -1.0339282, -0.7472493, -1.0236453, 0.33611527, -0.075320594, -0.20511837, 0.1319465, -0.044036474, -0.26667506, 0.14031117, -0.19379319, 0.041549534, -1.0026553, 0.220575, -1.0329357, 0.08077617, -0.11629691, -0.051511776, 0.20455629, 0.15541334, 0.30800492, -0.00527792, -0.4181258, -0.9559845, -0.24150527, 0.10895876, -0.2970898, 0.1965712, -0.27307057, -0.45240286},
    {-0.39591777, -0.22665279, 0.24242087, -0.93042314, -1.8691018, -0.3289505, -0.123741485, 0.031543627, -0.15392709, -0.18995254, -0.16734321, 0.13806379, -0.03534325, -0.31513193, -0.15341729, -0.012437953, 0.325721, -0.06465403, 0.114499286, -0.15028475, -0.151639, -0.35776317, -0.39261305, -0.15831503, -6.9683423, 0.17416112, -0.15183112, -0.23098479, -0.07158387, 0.0037190889, 0.08180689, -0.28652188},
    {-0.2233928, 0.14589392, -0.2231495, -0.27451256, 0.6217515, 0.036604982, 0.16201869, 0.16854933, 0.0051294565, -0.14018585, -0.10006638, -0.1258064, -0.19613644, -0.21361558, -0.33277667, -0.07204743, -0.25665122, -0.13392392, 0.08713697, -0.048172906, 0.3957662, 0.23188622, 0.063904345, 0.10162592, 0.16407458, -0.12501556, 0.17776257, -0.11823172, 0.019033942, -0.070698604, -0.21712856, -0.15519112},
    {2.5847738, -0.13448572, 1.3112347, 1.3900232, 1.4194301, 0.9837979, -0.055300593, 1.1165373, -0.039024234, 1.0426816, 1.1498587, 1.112729, 0.13667732, 0.048246797, 1.0898396, 0.073152184, 1.007401, 1.0839635, 1.0112294, 1.0978546, 1.4420937, 1.0002315, 1.1101257, 1.0107121, 1.0589685, 1.1077771, -0.13713533, 1.3835567, 1.2462289, 1.0983536, 0.12931727, 0.74085003},
    {-3.4566956, -0.09452778, 0.0026201042, -0.5058703, -0.69361883, -0.8297469, 0.03072989, -1.0006868, -0.19933057, -0.99994445, -0.57212013, -0.9499921, 0.1926291, -0.10441679, 0.013779377, 0.019373477, -0.81708074, -0.9999111, -0.56360865, -0.7953785, -0.9379729, -0.51414776, -1.0103811, 0.1906424, -0.9778003, -0.73412025, 0.01893313, -0.71033, -0.70762193, -0.6232991, 0.14706463, -1.0707515},
    {0.4792936, -0.29959086, -0.017246295, 0.40615875, 0.88146955, 0.3724933, -0.15186518, 0.036312457, -0.03367108, -0.079331286, 0.06894068, -0.13130759, -0.15954442, 0.14336802, -0.1089125, -0.13204606, -0.17924862, 0.10131581, 0.19365421, -0.24253123, 0.08555866, -0.23113425, -0.118235536, -0.22827, 0.17872594, -0.2790393, -0.24136816, 0.043658916, 0.1529897, 0.2248704, -0.0010176006, -0.39261672},
    {0.66427445, 0.041517295, 0.4484186, -0.21322903, 0.87077254, 0.008760497, -0.11743264, 0.1654832, -0.08931476, -0.1840574, -0.083742864, -0.42772657, 0.021107456, -0.116786644, -0.45071563, -0.07197894, -0.2930543, 0.10633159, 0.56659013, -0.2492176, -0.066436924, -0.22780037, 0.17870793, 0.68606436, -0.09603912, -0.17699005, 0.04450538, -0.015713409, 0.27724618, -0.11323964, 0.010653296, -0.42386177},
    {-1.6640428, 0.049162377, 1.1649961, 0.69343793, -0.5582493, -0.2458451, 0.04026927, 0.058927227, 0.033002615, -0.09794198, 0.016559508, -0.23447675, 0.059319668, -0.094926044, 0.64700234, -0.06801979, 0.77879345, -0.21519658, -0.2661668, -0.2523564, -0.1077983, -0.08322843, -0.6143959, -0.4304596, 0.29255238, -0.1380628, -0.30384275, -0.114956714, -0.5638858, -0.30905616, -0.042030726, -0.73801655},
    {1.1024911, -0.1304908, 0.60169834, 0.22037853, 0.71686643, 0.86874014, -0.26623094, 0.52986395, -0.16894358, 0.32405975, 0.5022472, 0.148579, 0.11427366, -0.3374256, 0.09797086, -0.17720348, -0.27350718, 0.52320707, 0.21633054, 0.44333658, 0.58480805, 0.4427909, 0.22750117, -0.08733021, 0.053383972, 0.039603755, -0.28898445, 0.19452032, 0.21116835, 0.3811763, -0.19048844, -0.08677691},
    {0.17439853, -0.03107027, -1.4375105, 0.0759923, -0.718629, 0.03961997, 0.17262866, 0.38169932, -0.12182492, 0.3529241, 0.3114654, 0.1909282, 0.03140876, 0.041674525, 0.017345842, 0.088353604, -0.03940586, 0.20395458, -0.102224655, 0.26471296, 0.3922363, 0.5538562, 0.36478192, -0.15975243, -0.2638592, -0.1283519, -0.08077099, 0.17325543, -0.24581377, 0.3427216, -0.082576595, -0.02777867},
    {0.10832974, -0.1159721, 0.4504898, 0.26635662, -0.24233656, -0.26406062, 0.08917535, 0.057785835, -0.043267846, 0.06331886, 0.3023299, 0.22150251, 0.14164007, 0.050788112, 0.36321157, -0.19542304, 0.736097, 0.12310761, 0.45392126, -0.2237327, 0.033572037, -0.06927498, 0.17912516, -0.06962644, -0.013137518, 0.20885594, -0.162583, 0.027230535, 0.20668824, 0.20350343, -0.24052225, 0.24929574},
    {3.106888, -0.049444593, 2.1043427, -0.31152534, 0.45607382, -0.38230222, -0.06251569, -0.22784764, -0.032215297, -0.46606869, -0.43166715, -0.31734943, 0.11696323, 0.1154287, -0.50585973, 0.17497547, -0.42170715, -0.19345014, 1.487944, -0.13311772, -0.3088801, -0.19006689, 0.016344052, -5.263353, -0.903078, -0.6936996, -0.045437656, -0.044050977, -0.086481035, -0.09884104, -0.12558949, -0.29863644},
    {0.28972834, -0.26279238, 0.15028559, 0.010570371, 0.5073703, 0.39722428, 0.14288308, 0.6399455, -0.20441467, 0.2818405, 0.6534134, 0.68711233, -0.2579317, -0.22834365, -0.1841143, -0.041040108, -0.005697927, 0.5204901, 0.68618125, 0.53497756, 0.61337125, 0.47844672, 0.78595966, 0.4110346, 0.07819005, 0.2224579, -0.15740246, 0.4542703, 0.7266372, 0.6148879, -0.28594762, 0.45589957},
    {0.80981714, -0.057671536, -0.08005552, 0.016875532, 0.9225327, -0.029105956, -0.28640276, 0.37182534, -0.17140001, 0.065590285, 0.06945021, 0.35851777, -0.2257225, 0.020429254, 0.14806943, -0.008741869, -0.052569192, -0.093269534, 0.8248446, 0.11371933, 0.036516935, -0.028926501, 0.32088733, -0.4003807, 0.16926561, 0.06428497, -0.07441958, 0.12728305, -0.023103895, 0.36194178, -0.029552208, 0.074085444},
    {1.5294628, -0.20742357, -0.5510429, 0.104563706, 0.18470554, 0.6185376, -0.051155362, 0.09323871, -0.20561123, 0.31293476, 0.2350572, 0.26943785, 0.18096422, -0.17742255, 0.20855981, 0.18113942, 0.58442974, 0.26612285, 0.4819955, -0.046814613, 0.54199654, 0.58759636, 0.06719788, 0.12963694, 0.58337367, 0.38982403, -0.19626458, -0.015121498, 0.3743433, 0.31961703, 0.12185434, 0.41942567},
    {0.16380948, -0.19072449, 0.013179719, 0.12231082, 0.02105099, 0.18432277, -0.16920209, 0.033854365, 0.07563692, 0.028135896, -0.02487588, 0.09661448, 0.04380411, -0.007377267, 0.07184774, 0.20974076, -0.21591878, 0.10714334, -0.21585673, -0.05116397, 0.05871147, -0.13265401, 0.18536812, 0.029542506, 0.15643609, -0.023776174, 0.2431441, 0.06773901, -0.17671943, -0.21866858, -0.20812011, 0.17040235},
    {0.8065454, -0.08387166, -0.5549857, -0.2516724, 0.2828939, -0.19247672, 0.09172545, 0.23184758, 0.052174747, -0.07223084, 0.03429806, 0.16397566, -0.12670986, -0.020695541, -0.33527797, 0.11393273, -0.07465635, 0.17114522, 0.20607407, -0.041120112, -0.09794949, 0.1375679, -0.07769315, 0.042648945, 0.4098929, -0.063235864, 0.023711683, 0.24608889, 0.059881795, 0.25103247, -0.11833847, 0.28480646},
    {-0.29036653, -0.079011604, -0.22714308, 0.44470397, -0.041790914, 0.56907773, -0.06892467, 0.42713964, -0.23915744, 0.2131581, 0.028341848, 0.22816607, -0.26659617, -0.3076604, 0.14712869, -0.099202335, -0.11682851, 0.2608907, -0.039968427, 0.23769176, 0.59581006, 0.5312796, 0.3385383, 0.12817135, 0.2265943, -0.055177744, -0.06903695, 0.36636415, 0.20973045, 0.4166927, -0.012092087, 0.11641928},
    {0.20992589, -0.052549243, 0.20176935, -0.1790114, -0.0153282285, -0.24210638, 0.020368278, -0.22681856, 0.09706825, -0.04606867, -0.177495, 0.20254493, -0.1642847, 0.038183272, 0.18162763, 0.0835585, -0.15276629, -0.11172211, -0.0986343, 0.24422169, -0.113990426, 0.10522711, -0.108858764, 0.13101226, 0.08241767, -0.16553783, -0.055862784, -0.205913, 0.11680257, 0.08043015, 0.08196938, -0.19763392},
    {-0.015192032, -0.21659636, 0.18347526, -0.060900092, -0.17046559, -0.15301126, 0.06503862, 0.071986794, -0.02957505, 0.19608599, 0.2143873, -0.15495223, 0.23294395, 0.04269725, -0.1278897, -0.03239703, -0.11502874, -0.1539911, 0.009308994, -0.083559394, -0.0025877357, -0.10845274, 0.1307202, 0.08729005, -0.027562082, 0.16339529, -0.04480064, -0.043188274, 0.0009237528, -0.14896983, 0.21282703, 0.101102054},
    {-0.18449508, -0.05552828, -0.33928543, 0.24583437, -0.03812337, 0.21708584, -0.10951565, 0.40893254, -0.08264601, 0.121212, 0.078191124, 0.30635244, -0.035092432, 0.03374909, 0.37565958, -0.2657929, -0.0021355662, 0.18867607, -0.060886975, 0.3594313, 0.6312536, 0.54752016, 0.30264294, 0.071570866, -0.075955, 0.03695208, -0.012047538, 0.5037194, 0.4174257, 0.45309356, -0.22372326, -0.09296802},
    {2.1375718, 0.11017233, 0.17680237, 0.63732624, 0.71938723, 0.6396985, -0.27808574, 0.4743114, -0.087284684, 0.4503211, 0.6038959, 0.3111229, 0.07089788, 0.1518925, 0.29916775, 0.24417782, 0.3273893, 0.61299837, 0.8605441, 0.4986802, 0.92668414, 0.6123436, 0.7237421, 0.36375695, 0.42932108, 0.3943708, -0.013268647, 0.53312635, 0.78165805, 0.7257382, 0.16763404, 0.2637655},
    {1.1271491, -0.26526546, 1.2283885, 0.66106987, 1.2841357, 1.0000564, -0.036120147, 1.4334855, -0.03175336, 1.353673, 1.2972579, 1.2455026, 0.043277305, -0.19098139, 0.5792865, -0.18671906, 0.75705785, 1.057351, 1.1160938, 0.9683515, 1.0032533, 1.2616888, 1.0523133, 0.8981695, 1.5428553, 0.9904934, 0.152845, 0.9879877, 1.1316755, 1.1932503, 0.12831922, 1.2052563},
    {-0.05734539, -0.028898895, -0.07160139, -0.13209558, 0.19080383, -0.06806809, -0.21921599, 0.15170896, -0.07496929, 0.1302368, 0.18142575, -0.23546231, 0.07787776, 0.248232, 0.0463683, -0.18061829, 0.18603575, 0.045435727, 0.048561096, -0.22796088, 0.011001766, 0.12764096, 0.16462028, 0.073220134, -0.1017316, -0.11711347, 0.20201159, 0.13246298, 0.1963687, -0.08277738, -0.11538762, -0.135777},
    {0.9213785, -0.018643936, -0.23276436, -0.14798927, 0.2419764, 0.2667248, 0.15686679, 0.04812163, -0.030695677, 0.13229321, 0.05914435, 0.17414145, 0.18970424, -0.12398567, -0.42859086, -0.19601613, -0.52633035, 0.30996078, 0.3606852, 0.07026375, 0.52393395, 0.3723096, 0.22345227, 0.19171484, 0.51706994, -0.25224668, 0.079688065, 0.11577524, 0.13318983, 0.34667563, -0.23773682, 0.31481025},
    {-2.2030249, 0.12311721, 1.7706035, 1.0602189, 1.47, 1.2410061, 0.15441722, 1.2993895, -0.18419176, 1.3767433, 1.2656243, 1.2220955, 0.11276603, -0.17322585, 1.2676811, -0.04724723, 1.0307881, 1.3737894, 1.4448701, 1.5028065, 1.7637204, 1.566838, 1.279404, 1.4907892, 1.5910107, 1.3471712, 0.069084756, 1.3735582, 1.3284591, 1.2755487, -0.122663625, 1.1763142},
    {-0.061731458, -0.12152922, 0.05103427, 0.16965127, -0.05411774, 0.07427025, 0.050969243, -0.01801306, -0.008763611, 0.06275308, -0.02033168, -0.15793806, 0.2467264, -0.15325874, 0.09570849, -0.11632848, -0.21113807, 0.23098296, -0.05400437, -0.1127969, 0.06587261, 0.046761155, -0.052387655, -0.15625805, -0.17186517, 0.18203908, -0.03440994, 0.086723864, -0.20731336, -0.14698249, 0.092746675, -0.13615572},
    {0.68401706, 0.13255307, -0.27070755, -0.17770398, 0.16078791, -0.055891056, 0.20184928, -0.59564, 0.03373128, -0.48205912, -0.25266796, -0.018704554, -0.21280463, 0.09533086, -0.8979106, 0.05455236, 0.47527865, -0.70307887, 0.22762254, -0.778348, -0.73665464, -0.3920655, -0.74807423, -1.0493041, 0.040509846, 0.056077052, 0.18258582, -0.5940451, -0.33648065, -0.2908435, -0.16293834, 0.15524687},
    {0.20582947, -0.19049165, 0.54134446, -0.2711503, 0.05862728, -0.7792637, -0.09707772, -0.41337636, 0.21474099, -0.24535002, -0.04552676, -0.11777753, 0.18661557, -0.3306052, 0.22596689, -0.26342365, 0.18796816, -0.3281183, 0.03435547, -0.5578221, -0.11474981, -0.10198348, -0.6718702, -0.9937797, -1.0227003, -0.17371196, 0.0829327, -0.13300125, 0.073918425, -0.5331847, -0.2172229, 0.07722562},
    {-0.75485516, -0.22438031, -0.0073365495, -0.024723995, -0.34988722, -0.15856446, -0.03723409, -0.24470118, 0.2034657, -0.15554275, -0.13676807, -0.07159082, -0.20316185, -0.3537556, -0.029209841, -0.16120616, 0.21312788, -0.045407336, -0.1631229, -0.24450535, -0.09208424, -0.17513482, -0.084438674, 0.11236678, -0.43730316, 0.0641141, -0.05724394, -0.26580685, -0.13279603, -0.030398594, -0.1865573, -0.09507255},
};

const float B3[] = {-2.6111238, -0.06068363, 9.58727, 9.203087, 6.6229615, 9.148658, -0.05906648, 9.547879, 0.0, 9.552374, 9.600384, 9.517346, -0.031765424, -0.11062969, 9.198428, -0.07200991, 8.892637, 9.532743, 9.32476, 9.552048, 9.673279, 9.851687, 9.597402, 8.601046, 9.124841, 9.367202, -0.048905846, 9.510333, 9.573439, 9.499724, -0.107709706, 9.275227};

const float W4[32][16] = {
    {-3.1622946, -3.2337158, 0.16308574, -0.064595856, -2.4594495, 0.095353454, -2.44142, -2.9320693, -2.863412, -0.27534375, -2.5350575, 0.15198469, -2.4603224, -2.961532, 1.4638369, -2.5913157},
    {-0.33780748, 0.27126056, 0.18609384, 0.296432, -0.24758056, 0.34015802, -0.32614172, -0.23020868, -0.15990713, 0.31835017, 0.14889845, -0.22296466, -0.19588006, 0.15334554, -0.12798329, 0.22139207},
    {0.19286714, 1.682697, -0.057906836, -0.42038113, 1.3569007, -0.21902385, 1.7745736, 1.8912483, 1.5750326, -0.19523874, 1.6854887, 0.054597337, 1.699317, 1.8103191, -0.5891889, 1.6810223},
    {0.75924116, 0.18864009, 0.23764881, -0.23501568, 0.3087928, 0.26017526, 0.07769908, 0.19443092, 0.50205725, -0.27885044, 0.39755183, -0.27297482, 0.45501238, -0.060995847, -1.1688027, -0.010344854},
    {-0.022328295, 0.52154166, -0.16867346, -0.40653598, 1.0202074, -0.042813778, 0.9178687, 1.0540831, 0.98746306, 0.047785573, 0.41111416, -0.111984834, 0.91236895, 0.41891414, 0.2919991, 0.9530678},
    {-0.05520978, 0.62424695, -0.02446475, 0.06562398, 0.1194923, -0.15771328, 0.22607756, 0.5871628, 0.5958839, -0.35799992, 0.10908393, 0.18181412, 0.4366425, 0.49192372, -0.15115121, 0.77459},
    {0.11561343, -0.17075807, 0.09497818, -0.33942476, -0.2544312, 0.06496373, -0.092267446, 0.17505488, -0.13992119, -0.19537003, 0.083911836, 0.21299914, -0.19777419, 0.30857074, -0.034527212, -0.006110627},
    {-0.24622299, 0.16970183, 0.23280396, -0.23227295, 0.48532048, -0.22361179, 0.029524768, 0.7337792, 0.7319088, -0.18149112, 0.6191528, -0.45738888, 0.4693583, 0.089956135, -0.07728911, 0.1713726},
    {-0.20701705, -0.24548852, 0.26273534, 0.0726797, 0.099856585, -0.25497723, -0.32081658, 0.31493762, 0.21770135, -0.092930764, -0.28346485, 0.040639013, 0.050517052, 0.2394971, 0.34797826, -0.3517373},
    {-0.56842023, 0.16091993, -0.0022788416, -0.19698213, -0.1429388, 0.21078885, -0.027861755, 0.38287392, 0.44243315, -0.1399332, 0.1222287, -0.26607576, -0.040703602, 0.32851377, -0.12809367, 0.1717725},
    {-1.0897679, 0.6240287, 0.117600024, -0.32614833, 0.3242476, 0.11236219, 0.3613251, 0.28278327, 0.31048787, 0.1902481, 0.44779548, -0.111319706, 0.44563892, 0.45167315, -0.5324038, 0.28743225},
    {-1.7601671, 0.33975112, 0.21650025, -0.42297545, 0.41917953, 0.14868535, 0.21340382, 0.085698806, 0.027719337, 0.12535813, 0.47065708, -0.018310329, 0.5648884, 0.06578434, -0.33690834, 0.34866098},
    {0.287645, -0.18355186, 0.33056888, -0.27932316, 0.005691043, 0.30710748, -0.23117545, -0.26577884, 0.06231595, -0.18925266, -0.15466113, -0.05893311, 0.25238177, 0.24674538, -0.27362114, 0.10178093},
    {-0.20307055, -0.10182988, 0.2875188, 0.20473786, -0.095949285, 0.28554097, 0.2917941, -0.25132746, -0.20392941, -0.07512858, 0.15782194, 0.033150658, 0.30213588, -0.1641263, -0.16264164, -0.2217833},
    {-0.10809087, -0.03467806, -0.22864993, 0.057623643, -0.025881177, 0.14356193, 0.45805335, 0.5374094, 0.35136765, 0.21463105, -0.09464452, -0.066721566, 0.56046736, 0.5093377, -1.3301233, 0.39612445},
    {-0.26936623, -0.1468677, -0.04166451, 0.2622479, -0.06654779, -0.16751324, 0.24780233, -0.07806415, -0.13013783, 0.15498617, -0.21018547, 0.012125313, -0.09922849, 0.072349295, 0.076928884, -0.24135083},
    {-1.3708533, -0.14289248, -0.33158827, 0.13409536, -0.049003594, -0.2778543, -0.20890848, 0.11276966, -0.034368336, -0.08918875, -0.102810785, -0.20563515, -0.04233717, 0.3759188, -1.5458196, 0.23142406},
    {0.1077255, 0.45231214, -0.041933965, 0.20581116, 0.43078214, -0.27375567, 0.096143365, 0.27419564, 0.0923948, -0.30402014, 0.42638555, -0.39743093, 0.3608945, 0.19963154, 0.0048448783, -0.13050254},
    {0.11651761, 0.90560055, -0.18976861, -0.19547145, 0.6920367, -0.154012, 0.66275966, 0.63172305, 0.7953249, -0.3364749, 0.36863548, -0.14819294, 0.6691368, 0.81691986, 0.39412192, 0.9963026},
    {-0.089059845, 0.4681681, -0.20064807, -0.13378991, -0.14166923, 0.032652464, 0.2594629, 0.12407474, 0.2325919, -0.3775065, -0.06806869, -0.010101622, -0.009006977, 0.38608733, 0.29125878, 0.31299704},
    {0.9293311, 0.7201042, 0.111783646, 0.2341839, 0.5551288, -0.21590835, 0.43821198, 0.5384108, 0.6496814, -0.007178152, 0.18669553, -0.25197393, 0.32041737, 0.59613365, -0.21294653, 0.50453955},
    {-0.0685022, 0.90033966, -0.115017325, 0.209491, 0.28042382, 0.09513072, 0.5186183, 0.20100564, 0.4507502, 0.1956797, 0.72597176, 0.07383578, 0.450792, 0.6852652, -0.5196652, 0.9082951},
    {0.23058327, 0.17765659, -0.3409644, 0.13221614, 0.0035995564, -0.11609459, 0.46389648, 0.51910174, 0.3325801, -0.053887248, 0.24173103, 0.20267871, 0.51975715, 0.22048725, 0.569031, 0.07368871},
    {0.16735621, 1.3001329, -0.023109663, 0.111742415, 1.7219801, 0.22266087, 1.123282, 1.7789769, 1.6656121, 0.27372146, 1.5668402, -0.12360046, 1.6708599, 1.6862885, -2.7132452, 1.4400152},
    {-0.8205136, 1.117147, 0.30228722, 0.06539383, 0.8182327, 0.022072047, 1.2090219, 1.4801072, 0.80450684, 0.022842364, 1.0057507, -0.10354057, 1.4416459, 1.2939953, -0.536455, 1.0262959},
    {-1.6184858, -0.12922767, -0.3658437, -0.40696526, 0.2526195, -0.28323287, 0.2539632, -0.18877962, 0.23801959, -0.25356227, -0.016826248, -0.0942376, -0.09411834, 0.37349328, -0.393701, -0.027944399},
    {-0.18940641, 0.19415028, 0.24416126, 0.30898213, -0.34618622, -0.29038253, -0.03925196, -0.059492197, -0.29132196, 0.058112305, 0.10730111, 0.12898308, -0.15729192, 0.1821171, 0.23076478, 0.12315378},
    {0.23975861, -0.10454328, -0.03921458, -0.19019611, 0.5426949, -0.28631794, 0.47561365, 0.35737792, 0.61287385, -0.36663336, 0.33882394, -0.010123636, 0.60518193, 0.33136547, 0.12927772, 0.19298035},
    {0.3734322, 0.5674143, 0.10253233, 0.08580625, 0.4727778, 0.10057038, 0.5916577, 0.018026087, 0.16276716, 0.1250223, 0.55520946, 0.14852558, 0.6315259, 0.326428, 0.17725924, 0.35552716},
    {-0.256767, 0.17640771, -0.12631561, -0.22206514, 0.5790387, -0.062795505, 0.24050044, 0.61442655, 0.6797648, 0.17493969, 0.43921, -0.2629828, 0.21814378, 0.23205233, -0.11892673, 0.6163441},
    {0.026121203, 0.27569538, 0.19855477, 0.25488675, -0.04954668, -0.28778797, 0.09415538, 0.12584008, -0.23820457, -0.16855422, -0.045038998, -0.029256536, -0.0062972615, 0.12225453, 0.061842322, -0.14391266},
    {-2.6465464, 0.22835894, -0.42855775, -0.44104582, -0.15315074, -0.35001448, 0.08988181, -0.32078087, 0.2908093, -0.17926036, 0.094620414, 0.078199446, -0.24569885, -0.014940433, -0.26764855, 0.2397101},
};

const float B5[] = {-0.16230907, 9.907635, -0.042822175, -0.123637095, 9.723475, -0.017272845, 9.784945, 9.668367, 9.642578, -0.045214362, 9.677091, -0.10910967, 9.610079, 9.681346, 1.0160112, 9.673334};

const float W6[16][16] = {
    {-3.1856499, -3.7031412, -0.24518242, -3.2553825, -0.07329413, 0.3017621, 0.23649275, -2.9747336, 0.16414647, 0.22494069, -3.1409724, -3.4190943, -0.13233061, -3.6874156, -0.09680328, -3.2236133},
    {1.1629982, 0.88037425, -0.35258347, 0.5559242, -0.025999904, 0.17224398, 0.043121107, 0.8763261, -0.37993953, -0.13183755, 0.6449498, 1.0890186, 0.13855794, 0.85467297, -0.12252453, 0.5345569},
    {-0.12402576, -0.37090868, 0.010134697, -0.2693776, -0.07762405, 0.2008392, -0.21812996, 0.016436247, 0.32665682, 0.1746588, 0.26145613, 0.085722476, 0.130842, -0.072841525, -0.09905367, 0.3975662},
    {0.42216593, -0.24543887, -0.27284998, 0.213019, -0.26040262, 0.045394037, 0.2521941, -0.17930084, 0.27183685, -0.12303731, 0.13380612, 0.017804554, 0.29141426, 0.4931598, 0.18913838, -0.21465002},
    {0.48839328, 0.31856748, 0.22023347, 0.82203144, 0.13775, -0.27881086, -0.43911606, 0.65884286, -0.064246185, -0.323356, 0.91352564, 0.9215746, -0.14003472, 0.68732864, 0.16009606, 0.26756582},
    {-0.31534332, 0.24517158, -0.23328112, 0.40788016, -0.08973819, 0.06429504, -0.18487701, 0.28338316, 0.3409431, 0.42030302, -0.4008449, 0.25308388, 0.23449025, 0.12648322, 0.41587645, 0.4408564},
    {0.49731055, 0.55798095, -0.15206555, 0.55833304, -0.51666576, 0.07991641, 0.14637834, 0.88604456, -0.395969, -0.33645654, 0.21257733, 0.9208397, 0.07773496, 0.48203015, -0.030983103, 0.40180025},
    {0.655052, 0.7506151, -0.23617251, 0.37015083, 0.26568526, 0.24163829, -0.07394682, 0.53312874, -0.18751866, -0.42964476, 0.6886841, 1.122517, -0.1307861, 0.8766954, -0.48200852, 1.1169277},
    {0.76276463, 0.5224351, -0.37638456, 0.86654544, 0.0317747, -0.33500054, -0.13974628, 0.8352067, -0.030092593, 0.22140595, 0.7364137, 1.0539203, 0.085963175, 0.80535096, 0.17499134, 0.70427686},
    {-0.16596818, -0.4259132, 0.40148094, -0.13744438, 0.024884727, 0.018121867, 0.4206329, -0.14297573, 0.37002105, 0.35152116, 0.25675803, -0.15382482, 0.22519219, -0.21060924, -0.15578002, 0.2967775},
    {0.5580097, 0.97820723, -0.12784305, 0.2182435, -0.35789108, 0.047888454, 0.018838212, 0.88394296, 0.36907318, -0.23704292, 0.35378563, 0.43016753, 0.25292477, 0.58237237, 0.21194637, 0.5872333},
    {-0.012843335, 0.44585946, -0.258489, 0.13804573, -0.2407755, -0.43300796, 0.033063687, 0.06062613, -0.23314773, 0.13306174, -0.35264573, -0.0115789985, -0.29663748, -0.28883275, -0.048673525, -0.26739225},
    {0.661517, 0.9517793, 0.25427195, 0.81465334, 0.0067023207, -0.0071435617, 0.06565956, 0.8654735, 0.15049624, -0.32401744, 0.77604884, 1.0305084, 0.061221432, 0.74625236, -0.3845932, 0.307216},
    {0.6491828, 1.1152264, 0.0026175976, 0.87561786, 0.034888994, -0.02374012, 0.35334653, 0.9399255, 0.31397563, 0.2821565, 0.36452597, 1.1544331, -0.39519474, 0.85399103, 0.33123353, 0.46195182},
    {4.121605, 4.055236, 0.04964593, 3.6245432, -0.29016542, -0.36638457, -0.30581158, 4.124416, -0.35422176, 0.3406478, 3.6186905, 3.9677403, 0.0012532175, 3.5976863, 0.017799616, 3.8474329},
    {0.76565003, 0.5237283, -0.09306249, 0.45773682, -0.10285335, -0.07887128, -0.28704944, 0.7821086, -0.14710599, -0.29749048, 0.9106375, 0.62671953, -0.2298744, 0.9153096, -0.06442725, 0.9540339},
};

const float B7[] = {9.602517, 9.586198, 0.0, 9.736024, -0.08033985, -0.01970696, -0.009700721, 9.536609, -0.04170622, 0.0, 9.53241, 9.492011, 0.0055408133, 9.508309, -0.10158107, 9.559314};

const float W8[16][1] = {
    {0.9093151},
    {1.3038324},
    {-0.41026902},
    {0.62198615},
    {-0.139542},
    {-0.3311254},
    {0.031191818},
    {1.0999362},
    {-0.081464656},
    {0.32489628},
    {0.9845964},
    {1.2448636},
    {0.13352804},
    {1.1161118},
    {-0.49355465},
    {0.9423126},
};

const float B9[] = {9.451409};
